#include "weights.h"

const data_t W1[INPUT_SIZE][HIDDEN_SIZE] = {
    {-132,-108,103,150,87,-427,-53,-65,-50,45,150,109,88,210,-53,322},
    {-105,-71,74,91,108,-354,-23,-106,-36,79,166,95,64,83,-49,322},
    {-58,-32,115,92,68,-325,2,-74,-10,82,170,105,6,18,-41,301},
    {-26,-26,158,139,73,-293,5,-12,23,49,166,126,-44,-16,-32,220},
    {-31,-1,110,153,33,-220,16,-45,42,29,165,142,-81,-1,-12,130},
    {-64,-14,85,177,61,-156,5,-54,30,-25,132,174,-88,-9,-5,44},
    {-112,9,1,148,55,-44,18,-148,-10,-21,129,159,-71,13,32,0},
    {-124,17,-12,147,82,-18,27,-195,-12,-8,108,117,-51,7,38,-13},
    {-105,4,-23,119,73,-63,22,-141,2,-23,92,90,-61,-16,30,-19},
    {-95,36,-76,41,34,-103,45,-94,-24,0,123,6,-72,-19,40,-20},
    {-71,39,-47,6,65,-153,42,-22,-30,-31,127,-30,-86,-45,33,-58},
    {-90,73,-108,-79,46,-120,66,-35,-56,0,139,-57,-69,-61,41,-61},
    {-47,62,-98,-53,59,-112,58,-29,-49,-25,115,-11,-86,-69,61,-61},
    {-47,82,-123,-66,31,-90,69,-88,-77,-4,137,7,-94,-49,86,-27},
    {-37,73,-98,-56,58,-90,62,-66,-77,-1,106,79,-110,-66,87,-12},
    {-40,55,-101,-73,47,-64,49,-35,-72,11,77,113,-106,-54,72,-10},
    {-53,48,-79,-75,78,-66,43,-32,-77,26,70,117,-131,-54,63,2},
    {-69,91,-69,-99,59,-34,66,-35,-100,30,94,55,-117,-46,61,-19},
    {-59,95,-80,-119,28,-28,67,3,-106,3,103,20,-101,-41,61,-24},
    {-43,102,-62,-104,34,-29,64,3,-83,5,110,11,-98,-43,66,-61},
    {-38,108,-69,-105,20,-25,76,38,-67,4,104,-6,-96,-42,69,-77},
    {-37,106,-26,-80,28,-21,76,54,-69,2,64,9,-101,-61,46,-80},
    {-33,89,32,-35,16,-34,69,88,-92,-31,33,38,-98,-108,13,-94},
    {-22,87,50,-39,-5,-7,73,94,-121,-68,11,53,-72,-108,-7,-74},
    {-52,117,17,-84,8,56,98,41,-173,-18,26,38,-28,-109,5,-77},
    {-45,132,81,-44,-4,66,111,30,-155,-35,32,40,-49,-113,-2,-72},
    {-48,166,126,-27,5,58,138,26,-146,-21,33,49,-82,-120,14,-69},
    {-33,167,137,-18,-12,39,135,32,-122,-36,2,42,-88,-126,11,-76},
    {-50,173,162,-20,-2,70,132,24,-118,-26,-41,64,-79,-130,0,-48},
    {-45,173,131,-15,-11,82,131,62,-119,-37,-57,58,-49,-131,-7,-69},
    {-45,168,71,-35,-22,116,125,41,-151,-23,-36,33,-20,-103,13,-71},
    {-39,185,38,-39,-23,136,136,30,-151,5,-4,18,-16,-83,20,-77},
    {-43,218,-8,-52,-35,185,153,-53,-126,37,-10,-3,-10,-102,7,-76},
    {-49,206,27,-52,17,172,141,-25,-90,51,-47,34,-24,-134,-24,-65},
    {-26,206,24,-69,12,155,141,12,-44,30,-74,51,-20,-133,-35,-88},
    {-11,162,-12,-85,-14,134,112,13,-30,4,-98,97,10,-95,-35,-98},
    {34,124,18,-87,9,69,88,64,13,-54,-99,136,-15,-87,-29,-112},
    {17,110,-19,-78,1,74,84,39,1,-49,-68,118,4,-73,-21,-119},
    {18,104,-48,-73,-15,126,83,79,5,-62,-85,111,44,-84,-30,-122},
    {-1,109,-76,-96,-35,172,90,100,-1,-36,-97,97,68,-97,-32,-115},
    {-12,116,-102,-103,-37,177,91,127,-8,-37,-81,96,65,-69,-23,-115},
    {-18,118,-68,-71,-41,146,88,133,-40,-39,-56,85,56,-40,-5,-105},
    {-41,98,-33,-29,-39,145,65,107,-51,-28,-45,70,101,2,5,-100},
    {-67,87,-40,26,-109,157,48,60,-59,1,-49,46,134,46,0,-73},
    {-57,52,-11,55,-126,99,22,105,-45,-10,-36,92,117,53,1,-73},
    {-46,37,-11,34,-123,71,10,129,-49,-28,-18,76,93,39,2,-84},
    {-50,40,-39,-17,-93,34,6,160,-61,0,6,52,77,21,6,-115},
    {-25,44,-75,-16,-117,30,8,165,-78,-3,-3,27,73,5,10,-107},
    {5,35,-62,19,-124,77,1,72,-72,-6,-39,16,99,-13,9,-113},
    {12,37,-38,21,-130,170,-3,-14,-41,13,-82,39,123,-33,-7,-94},
    {-8,25,-68,1,-132,173,-10,-75,-25,18,-73,43,129,-9,-16,-107},
    {-5,24,-40,39,-97,130,-8,-93,-14,-18,-70,33,127,-6,-35,-127},
    {5,36,-5,51,-48,81,-2,-57,2,-63,-13,-8,125,-6,-34,-207},
    {4,10,-12,83,-47,34,-18,-40,-37,-109,-11,-39,148,-14,-51,-212},
    {-17,-13,-39,102,-81,33,-30,-35,-87,-113,-21,-14,186,-9,-67,-186},
    {-28,-45,-34,141,-90,21,-44,-53,-85,-100,-59,14,171,-34,-92,-143},
    {-64,-69,-41,158,-63,20,-60,-44,-70,-36,-63,48,143,-64,-99,-116},
    {-81,-107,-52,127,-4,33,-78,-70,-59,32,-41,56,117,-79,-91,-92},
    {-112,-116,-105,78,49,55,-82,-125,-63,89,-39,46,123,-55,-96,-87},
    {-132,-134,-187,64,37,122,-84,-161,-87,115,-57,52,141,-72,-119,-75},
    {-106,-155,-236,43,24,128,-94,-169,-64,91,-78,97,144,-84,-131,-92},
    {-81,-174,-212,65,70,159,-104,-188,-15,81,-112,130,121,-108,-137,-118},
    {-80,-203,-234,32,157,134,-124,-129,8,81,-124,168,110,-92,-118,-125},
    {-104,-198,-220,7,178,130,-120,-69,-11,86,-111,133,107,-82,-100,-126},
    {-133,-187,-145,-43,152,131,-115,-28,-45,79,-110,136,127,-29,-98,-104},
    {-144,-163,-84,-37,122,65,-102,44,-106,69,-52,131,129,13,-80,-79},
    {-113,-153,-24,-46,112,-36,-99,114,-115,27,2,117,123,70,-54,-85},
    {-86,-124,29,-49,84,-118,-87,143,-119,13,59,100,90,144,-7,-55},
    {-57,-122,91,-21,137,-208,-89,198,-123,-3,90,94,54,186,42,-69},
    {-65,-95,31,-86,130,-185,-78,232,-183,17,132,30,84,234,83,-71},
    {-47,-71,31,-143,136,-193,-62,276,-184,27,175,-28,71,261,117,-91},
    {-14,-79,51,-131,145,-190,-62,310,-165,6,156,38,46,266,131,-97},
    {34,-89,110,-126,133,-161,-64,293,-114,-30,100,93,44,225,125,-85},
    {74,-86,141,-75,94,-129,-53,263,-61,-42,65,115,3,191,123,-52},
    {45,-65,125,-90,9,-93,-39,221,-55,-28,56,103,-20,176,100,-18},
    {13,-61,114,-104,-66,-70,-36,202,-77,7,63,92,-40,193,93,17},
    {-40,-52,120,-137,-130,-38,-38,191,-96,54,61,82,-50,207,92,36},
    {-33,-36,161,-126,-161,14,-35,119,-56,74,57,69,-75,221,100,34},
    {-10,-27,248,-67,-152,48,-30,94,-25,41,3,95,-105,200,83,56},
    {-1,-10,262,-33,-156,100,-21,56,2,40,-45,60,-123,231,69,95},
    {35,-16,378,54,-49,32,-23,96,60,-33,-85,61,-169,203,41,76},
    {67,1,438,70,-13,20,-17,87,97,-68,-116,30,-173,207,26,74},
    {44,32,406,29,6,28,-1,44,85,-57,-102,-52,-157,237,42,75},
    {59,59,392,7,-27,51,12,27,62,-63,-105,-80,-148,222,45,97},
    {74,52,355,0,-32,15,6,55,68,-65,-92,-77,-147,229,65,86},
    {56,58,335,10,-53,54,13,36,43,-48,-84,-116,-110,237,65,97},
    {31,54,324,16,-62,97,14,39,28,-27,-90,-158,-56,223,44,70},
    {-23,48,217,-51,-122,101,17,74,-57,46,-28,-209,-9,215,56,61},
    {-33,18,190,-87,-133,67,-5,97,-106,67,-5,-216,27,189,39,47},
    {-23,-37,147,-16,-68,38,-39,117,-103,93,19,-169,24,178,48,13},
    {-1,-66,133,23,4,14,-58,89,-79,120,26,-146,9,142,59,9},
    {36,-56,80,13,46,23,-49,74,-57,132,23,-179,-14,113,65,13},
    {51,-37,65,28,81,2,-42,52,-30,148,28,-223,-56,83,76,16},
    {47,-21,29,4,92,-15,-38,67,-38,164,35,-249,-82,59,82,-1},
    {60,-33,33,16,88,-78,-45,100,-56,113,57,-282,-86,44,81,-24},
    {77,-54,1,71,69,-126,-56,108,-62,51,58,-249,-75,32,73,-25},
    {125,-64,58,147,-8,-156,-66,136,-44,-12,42,-183,-70,15,49,-2},
    {113,-56,2,174,-82,-102,-60,93,-63,-7,9,-169,-47,26,36,48},
    {101,-51,-33,211,-76,-56,-56,79,-81,4,5,-150,-35,1,18,59},
    {90,-52,-109,190,-76,-73,-58,143,-103,19,16,-145,-9,11,11,35},
    {97,-33,-180,176,-83,-96,-47,151,-106,47,39,-110,-13,12,3,33},
    {145,-47,-217,220,-119,-193,-58,209,-90,28,54,-62,-21,16,12,8},
    {165,-47,-218,210,-119,-206,-57,198,-48,27,41,-13,-47,-8,7,17},
    {143,-58,-246,224,-135,-180,-67,132,-76,34,17,16,-65,-4,5,64},
    {120,-25,-264,221,-155,-100,-43,57,-83,66,-15,27,-79,-15,-4,82},
    {65,-8,-338,152,-177,-11,-30,-18,-107,130,-23,9,-78,7,18,87},
    {44,0,-385,109,-242,15,-22,-17,-87,138,-11,26,-60,16,36,44},
    {33,-14,-443,34,-244,55,-27,-33,-47,134,-53,89,-43,-13,45,22},
    {41,-73,-449,-8,-222,78,-55,5,-2,72,-111,178,5,-16,36,37},
    {5,-97,-451,-40,-192,94,-68,-29,-19,20,-117,227,61,-5,39,64},
    {-5,-118,-400,-62,-187,55,-91,-18,-13,-66,-64,241,72,44,60,72},
    {-9,-119,-300,-91,-124,-76,-113,9,20,-195,18,218,25,45,71,50},
    {-16,-84,-140,-68,-21,-224,-103,-9,83,-315,54,207,-27,26,54,5},
    {-84,18,-13,-27,33,-209,-38,-93,79,-329,44,168,-32,-50,8,-37},
    {-106,119,39,29,48,-114,39,-213,75,-303,-5,164,-14,-159,-47,-70},
    {-97,166,40,85,8,8,92,-303,17,-201,-46,135,27,-194,-90,-103},
    {-42,109,77,172,-8,48,78,-268,-60,-103,-64,125,42,-144,-108,-79},
    {14,71,150,252,-4,24,70,-244,-129,-26,-48,84,14,-62,-99,16},
    {61,65,177,294,9,23,78,-284,-150,57,-27,40,2,9,-79,124},
    {81,56,210,272,46,45,79,-328,-128,125,-10,33,17,35,-58,183},
    {120,42,257,227,106,56,65,-316,-60,123,-12,81,51,7,-41,174},
    {127,31,213,103,149,70,44,-277,-25,95,15,95,143,32,-4,103},
    {108,22,73,-58,159,78,22,-224,-33,32,86,-20,263,112,80,-28},
    {83,-4,7,-155,88,79,5,-152,-22,-98,109,-142,271,153,133,-130},
    {88,-41,117,-53,-25,67,-2,-74,68,-258,-3,-117,142,35,56,-150},
    {60,-81,110,85,-126,113,10,67,106,-289,-195,1,15,-131,-128,-41},
    {3,-40,-138,65,-156,142,51,205,50,-272,-285,154,-49,-105,-260,109},
    {-43,90,-269,-79,-157,70,111,323,-25,-284,-269,270,-126,-99,-322,259},
    {-19,109,-75,-32,16,-109,95,361,38,-235,-175,321,-150,-247,-381,249},
    {-51,25,-44,-75,147,-118,27,330,44,-33,-89,320,-40,-269,-327,196},
    {-120,-52,-230,-282,237,19,-28,284,-28,187,-29,260,148,-143,-198,127},
    {-142,-134,-330,-391,371,116,-84,267,-25,298,-26,225,265,-15,-87,38},
    {-99,-145,-323,-383,403,162,-96,223,1,271,-34,162,279,79,-3,-22},
    {0,-125,-208,-277,393,133,-85,211,87,136,-67,78,192,80,4,-60},
    {52,-74,-117,-208,316,136,-46,128,139,47,-96,-64,90,44,-44,-36},
    {82,-29,-68,-196,234,193,-5,52,145,-5,-143,-186,43,9,-111,13},
    {139,-23,41,-149,229,183,17,42,167,-52,-228,-144,24,-90,-175,50},
    {159,-31,47,-119,175,207,45,29,128,-68,-251,-123,52,-167,-197,130},
    {213,-36,151,-40,153,189,66,73,164,-127,-269,-58,48,-277,-215,156},
    {213,-14,133,-21,70,213,85,22,168,-96,-253,-82,50,-312,-207,185},
    {187,3,148,-46,12,201,76,49,120,-51,-207,-116,33,-303,-172,193},
    {115,33,122,-128,-83,204,59,-1,27,22,-159,-181,11,-247,-122,213},
    {100,18,152,-153,-146,114,15,-22,-8,57,-106,-182,-34,-167,-68,208},
    {107,-2,111,-151,-208,71,-14,-50,7,81,-80,-179,-56,-81,-22,187},
    {134,-2,92,-151,-258,80,-18,-104,17,106,-56,-193,-55,-40,3,199},
    {162,4,76,-148,-254,128,-5,-169,55,100,-50,-185,-40,-35,9,198},
    {212,-20,14,-129,-173,116,2,-138,97,61,-88,-124,-35,-100,-11,203},
    {219,-40,38,-80,-83,119,5,-86,116,11,-112,-47,-39,-158,-42,195},
    {224,-59,25,-86,-4,137,11,-76,139,-33,-131,-3,-19,-198,-59,161},
    {211,-53,2,-102,29,114,18,-38,113,-70,-89,-15,-22,-212,-64,139},
    {227,-64,18,-95,35,65,10,-29,145,-123,-58,-54,-51,-201,-64,136},
    {214,-39,28,-86,9,55,18,-77,142,-108,-40,-79,-67,-152,-50,139},
    {190,-35,64,-88,-33,50,16,-122,138,-61,2,-158,-58,-120,-27,121},
    {161,-22,70,-86,-51,31,16,-119,123,-44,7,-188,-61,-112,-20,94},
    {171,-28,72,-100,-42,-38,1,-8,121,-8,33,-169,-73,-105,4,33},
    {152,-12,89,-82,-99,-51,-11,-5,88,17,40,-176,-95,-63,37,15},
    {144,5,38,-93,-110,-77,-22,5,62,69,100,-198,-117,18,87,-24},
    {95,26,-24,-109,-153,-101,-35,-57,28,133,147,-220,-127,105,128,-18},
    {71,41,-35,-114,-177,-116,-42,-63,-4,158,174,-214,-151,161,151,-7},
    {89,16,39,-60,-128,-188,-59,-4,-10,97,158,-188,-172,145,136,-23},
    {54,19,45,-80,-109,-157,-52,-25,-61,118,153,-190,-153,123,117,-15},
    {18,-14,86,-25,-73,-120,-66,-49,-115,132,136,-185,-119,124,107,-17},
    {3,-28,93,19,-47,-86,-60,-100,-132,131,114,-168,-94,98,84,-16},
    {-6,-20,102,50,9,-37,-42,-127,-117,152,86,-153,-97,65,69,2},
    {-21,15,25,93,42,14,-13,-146,-92,158,66,-177,-88,41,53,1},
    {2,9,50,134,84,-6,-13,-91,-50,124,48,-190,-107,5,34,-40},
    {21,3,26,158,101,-37,-17,-32,-21,83,31,-171,-126,-18,24,-59},
    {42,-29,74,189,77,-76,-30,-18,-17,59,15,-155,-118,-28,14,-78},
    {34,-28,48,197,7,-56,-25,-38,-49,60,14,-123,-74,-5,22,-54},
    {18,-3,65,209,-34,-38,-16,-99,-46,71,24,-148,-60,19,26,-25},
    {-8,6,46,165,-65,-15,-13,-117,-53,79,44,-150,-25,24,21,-16},
    {-17,-3,32,154,-69,-6,-20,-101,-21,51,32,-155,-25,21,7,-18},
    {-24,-16,1,165,-41,-32,-24,-72,-27,23,56,-142,-33,34,23,-26},
    {17,-37,6,194,-12,-96,-33,-13,1,-35,46,-105,-43,25,42,-47},
    {27,-29,53,214,-18,-85,-27,7,5,-25,49,-42,-49,0,46,-35},
    {14,1,9,227,-76,-35,-7,-44,-14,24,56,-65,-28,-13,51,-27},
    {10,14,4,265,-83,-45,3,-25,-10,17,65,-57,-33,-12,39,-20},
    {29,27,2,263,-71,-27,11,0,8,9,47,-59,-32,-23,21,-17},
    {38,30,38,276,-82,-7,14,8,28,-18,1,-41,-27,-29,-4,-16},
    {29,19,8,291,-106,7,9,7,26,-29,-30,-9,-13,-15,-7,-4},
    {50,-9,18,305,-112,0,-9,-20,56,-51,-61,50,-20,-17,-16,18},
    {63,-1,-25,253,-152,5,-1,-35,81,-41,-39,42,-20,-19,4,29},
    {63,14,-41,215,-189,26,10,-47,85,-9,-24,13,3,-38,9,12},
    {39,3,-79,153,-236,14,5,-16,53,14,16,-7,16,-40,24,15},
    {33,-15,-53,152,-192,-2,-5,39,64,11,-13,42,11,-69,6,-4},
    {21,-34,-33,160,-174,-9,-15,70,63,-6,-56,85,43,-66,-6,-6},
    {41,-61,16,171,-136,-18,-31,79,96,-34,-108,163,38,-72,-24,7},
    {26,-49,0,143,-125,9,-22,30,88,-1,-108,152,56,-58,-27,24},
    {-6,-12,-65,85,-169,56,-2,-60,95,71,-74,103,57,-37,-6,44},
    {-39,9,-104,37,-178,86,8,-114,72,119,-35,41,51,-39,10,40},
    {-45,-18,-131,9,-153,83,-5,-105,73,144,-48,64,66,-73,1,19},
    {-39,-54,-81,28,-110,53,-27,-62,68,103,-73,105,83,-104,-30,-2},
    {-41,-62,-85,14,-75,74,-25,-37,53,103,-73,125,114,-134,-33,-28},
    {-49,-55,-104,0,-46,108,-18,-29,47,122,-64,124,124,-155,-38,-29},
    {-63,-49,-114,-30,-25,121,-9,-19,71,117,-55,120,133,-172,-57,-34},
    {-68,-32,-138,-51,-38,122,-1,14,77,96,-42,90,132,-165,-64,-40},
    {-74,-27,-147,-82,-27,113,1,4,96,95,-46,84,127,-128,-61,-44},
    {-46,-57,-122,-74,-12,68,-18,23,131,56,-71,98,134,-108,-58,-80},
    {-28,-60,-101,-100,-59,54,-16,15,147,60,-64,122,142,-85,-46,-73},
    {-7,-80,-91,-111,-34,36,-29,14,159,66,-41,93,145,-77,-39,-70},
    {-11,-56,-69,-129,-31,36,-17,-32,153,53,-32,61,135,-75,-47,-52},
    {-16,-69,-23,-113,18,-13,-26,-37,154,22,-34,75,101,-103,-78,-49},
    {-8,-81,-22,-114,27,-77,-34,16,151,-28,-26,97,72,-109,-87,-49},
    {-5,-85,-13,-101,32,-115,-40,35,151,-83,-35,109,61,-117,-91,-67},
    {16,-81,26,-85,34,-127,-40,53,147,-120,-31,127,58,-97,-80,-62},
    {19,-64,25,-104,-4,-116,-33,30,142,-129,-26,94,53,-73,-74,-41},
    {27,-37,41,-101,-10,-103,-20,11,159,-135,-21,103,19,-42,-63,-10},
    {14,-3,56,-96,-5,-114,0,-3,151,-164,9,82,-7,-12,-52,14},
    {-14,29,60,-109,-14,-103,17,-47,114,-167,31,52,-16,7,-36,38},
    {-36,31,30,-141,-28,-122,15,-66,83,-194,51,9,9,43,-16,10},
    {-63,38,23,-170,-77,-98,15,-106,24,-164,75,-10,32,97,3,28},
    {-22,16,47,-147,-96,-130,0,-81,28,-208,72,-13,24,137,23,13},
    {17,19,86,-168,-88,-136,2,-70,72,-233,60,4,-1,139,39,3},
    {26,14,48,-206,-76,-140,-2,-84,93,-202,61,18,-36,141,42,-7},
    {43,19,21,-211,-49,-143,2,-115,109,-173,105,25,-36,172,66,-17},
    {72,-4,-25,-205,5,-143,-15,-119,136,-167,104,43,-26,180,69,-33},
    {100,-6,-11,-174,41,-139,-16,-125,154,-171,94,75,-10,165,66,-32},
    {91,7,-35,-147,33,-100,-2,-147,124,-148,103,94,-6,153,62,2},
    {84,35,-55,-163,-15,-68,21,-157,94,-139,144,24,18,170,77,-4},
    {82,42,-55,-173,-9,-54,30,-139,90,-112,161,17,35,154,80,-30},
    {73,54,-109,-201,-30,-54,39,-121,70,-95,200,-13,43,159,93,-45},
    {68,57,-79,-175,1,-67,34,-113,63,-96,191,3,51,140,89,-63},
    {58,51,-83,-152,12,-56,27,-129,75,-69,176,22,42,143,98,-45},
    {66,43,-29,-104,66,-76,19,-138,89,-57,165,49,16,145,95,-31},
    {60,29,-2,-86,99,-73,12,-152,100,-30,138,57,17,133,87,-26},
    {40,12,35,-58,195,-64,-1,-132,72,3,106,79,14,102,61,-10},
    {12,-5,52,-63,243,-70,-17,-115,41,26,94,81,18,106,60,-10},
    {-3,4,51,-57,286,-84,-21,-139,17,43,119,47,27,112,66,-24},
    {6,18,62,-42,272,-83,-15,-147,23,45,131,28,16,100,67,-23},
    {8,23,54,-29,272,-66,-14,-164,35,59,134,28,0,84,64,7},
    {36,6,89,61,345,-88,-25,-69,65,23,99,106,-32,36,39,-1},
    {12,1,40,105,335,-81,-28,11,30,17,93,99,-17,45,33,-5},
    {-44,10,25,86,297,-61,-24,1,-37,46,85,64,14,50,23,9},
    {-98,43,-28,67,261,-14,-3,-59,-108,95,91,6,38,73,27,64},
    {-107,52,8,59,216,9,8,-101,-139,120,57,3,38,63,21,102},
    {-109,52,41,99,226,19,16,-116,-135,105,-14,47,21,35,-14,161},
    {-104,61,65,138,180,24,22,-110,-120,69,-61,51,-6,12,-45,211},
    {-103,73,4,121,145,-22,31,-62,-109,19,-85,31,-45,-6,-66,227},
    {-124,86,-57,102,77,-15,41,-39,-130,5,-68,5,-56,0,-63,229},
    {-155,68,-107,110,37,-17,30,-33,-137,9,-78,17,-59,8,-61,229},
    {-162,40,-88,173,38,51,22,-61,-117,6,-121,50,-56,-36,-86,204},
};

const data_t b1[HIDDEN_SIZE] = {
    -177,345,1187,330,1053,-186,173,443,1060,-120,-785,1088,-424,-110,-1211,-795
};

const data_t W2[HIDDEN_SIZE] = {
    -733,665,-1612,-1341,-1450,1116,420,-1175,-877,923,1022,-1193,877,1455,825,1019
};

const data_t b2 = 500;